{
    "layer1.0.weight": [
        [
            [
                [
                    -0.30725669860839844,
                    -0.3724025785923004,
                    0.3596716523170471
                ],
                [
                    -0.5594204068183899,
                    -0.10192698240280151,
                    0.4644726514816284
                ],
                [
                    -0.38024434447288513,
                    0.23356124758720398,
                    0.3604530692100525
                ]
            ]
        ],
        [
            [
                [
                    0.06355439126491547,
                    0.26050126552581787,
                    -0.14392684400081635
                ],
                [
                    -0.6617603302001953,
                    -0.1550886332988739,
                    0.4859537184238434
                ],
                [
                    -0.4879953861236572,
                    0.3543899953365326,
                    0.3099970817565918
                ]
            ]
        ],
        [
            [
                [
                    0.055843014270067215,
                    -0.5637246966362,
                    -0.4781413674354553
                ],
                [
                    -0.15450075268745422,
                    0.3458680212497711,
                    0.2570438086986542
                ],
                [
                    0.3051547110080719,
                    0.12065228819847107,
                    0.2084076702594757
                ]
            ]
        ],
        [
            [
                [
                    0.2823062837123871,
                    -0.04664640873670578,
                    0.13296638429164886
                ],
                [
                    -0.2785450518131256,
                    -0.6130805611610413,
                    -0.06397631764411926
                ],
                [
                    -0.36577194929122925,
                    0.3237251341342926,
                    0.6008199453353882
                ]
            ]
        ],
        [
            [
                [
                    0.3700312674045563,
                    0.5407795906066895,
                    0.23339134454727173
                ],
                [
                    -0.14194239675998688,
                    0.03110240213572979,
                    0.3177279829978943
                ],
                [
                    -0.19674532115459442,
                    -0.700275182723999,
                    -0.5314201712608337
                ]
            ]
        ],
        [
            [
                [
                    -0.3397965431213379,
                    -0.3670772910118103,
                    -0.15839791297912598
                ],
                [
                    -0.09614891558885574,
                    0.35344594717025757,
                    0.237582266330719
                ],
                [
                    0.35157567262649536,
                    -0.028026141226291656,
                    0.34987446665763855
                ]
            ]
        ],
        [
            [
                [
                    0.16782858967781067,
                    0.3629133403301239,
                    -0.052215952426195145
                ],
                [
                    -0.22575639188289642,
                    -0.0002171780215576291,
                    -0.1817413717508316
                ],
                [
                    0.18242600560188293,
                    0.027644861489534378,
                    0.3071146011352539
                ]
            ]
        ],
        [
            [
                [
                    0.04891200363636017,
                    0.06244200840592384,
                    -0.0977901965379715
                ],
                [
                    -0.1013583242893219,
                    0.07488216459751129,
                    0.5318976640701294
                ],
                [
                    -0.8610259294509888,
                    -0.1506115049123764,
                    0.35012099146842957
                ]
            ]
        ],
        [
            [
                [
                    -0.16293220221996307,
                    -0.10161671042442322,
                    0.026091009378433228
                ],
                [
                    0.09039506316184998,
                    -0.11067681014537811,
                    -0.124152272939682
                ],
                [
                    0.09594130516052246,
                    -0.012009233236312866,
                    -0.020103931427001953
                ]
            ]
        ],
        [
            [
                [
                    0.14135298132896423,
                    0.2466278374195099,
                    0.07726270705461502
                ],
                [
                    -0.3524914085865021,
                    0.34818771481513977,
                    -0.0959881991147995
                ],
                [
                    -0.06164966896176338,
                    0.17796754837036133,
                    -0.10055022686719894
                ]
            ]
        ],
        [
            [
                [
                    0.6765879988670349,
                    0.18770302832126617,
                    -0.4396093487739563
                ],
                [
                    0.40542981028556824,
                    -0.31935903429985046,
                    -0.31498029828071594
                ],
                [
                    0.08897282183170319,
                    -0.516470193862915,
                    -0.5980516076087952
                ]
            ]
        ],
        [
            [
                [
                    -0.4304027855396271,
                    -0.7308390140533447,
                    -0.596963107585907
                ],
                [
                    0.16362197697162628,
                    0.22018055617809296,
                    -0.4578160047531128
                ],
                [
                    0.36239904165267944,
                    -0.023434141650795937,
                    0.24868929386138916
                ]
            ]
        ],
        [
            [
                [
                    0.19975651800632477,
                    0.3888259828090668,
                    0.31243017315864563
                ],
                [
                    -0.5570470094680786,
                    -0.0790092945098877,
                    0.4455714523792267
                ],
                [
                    -0.5625485181808472,
                    -0.4982801079750061,
                    0.34850749373435974
                ]
            ]
        ],
        [
            [
                [
                    0.23147335648536682,
                    -0.13510262966156006,
                    -0.345818430185318
                ],
                [
                    0.5828080177307129,
                    0.016637424007058144,
                    -0.40412434935569763
                ],
                [
                    0.1919059455394745,
                    -0.0180902611464262,
                    -0.12410547584295273
                ]
            ]
        ],
        [
            [
                [
                    -0.2853618860244751,
                    -0.19719314575195312,
                    -0.11017012596130371
                ],
                [
                    -0.21838979423046112,
                    -0.20529469847679138,
                    -0.13118955492973328
                ],
                [
                    -0.07567265629768372,
                    -0.14645254611968994,
                    -0.1010427176952362
                ]
            ]
        ],
        [
            [
                [
                    0.23782239854335785,
                    -0.23803691565990448,
                    -0.7017223238945007
                ],
                [
                    0.23949198424816132,
                    0.2824690639972687,
                    0.24435260891914368
                ],
                [
                    0.24329350888729095,
                    -0.04009696841239929,
                    0.39446744322776794
                ]
            ]
        ],
        [
            [
                [
                    -0.38782232999801636,
                    -0.19889070093631744,
                    0.23895353078842163
                ],
                [
                    0.14028555154800415,
                    0.36842381954193115,
                    0.2839259207248688
                ],
                [
                    0.32722556591033936,
                    -0.009715794585645199,
                    -0.6945324540138245
                ]
            ]
        ],
        [
            [
                [
                    0.4456797242164612,
                    -0.13439595699310303,
                    -0.6767333149909973
                ],
                [
                    0.5366396307945251,
                    -0.060316238552331924,
                    -0.259931743144989
                ],
                [
                    0.19429689645767212,
                    -0.016346944496035576,
                    -0.07260727137327194
                ]
            ]
        ],
        [
            [
                [
                    -0.12924255430698395,
                    0.22330789268016815,
                    0.07527195662260056
                ],
                [
                    -0.04197908937931061,
                    0.3299180567264557,
                    0.30622050166130066
                ],
                [
                    -0.29319050908088684,
                    0.2468516230583191,
                    0.198841392993927
                ]
            ]
        ],
        [
            [
                [
                    -0.2730274796485901,
                    -0.4332859516143799,
                    -0.10795470327138901
                ],
                [
                    -0.2821320593357086,
                    -0.15222053229808807,
                    0.3518836200237274
                ],
                [
                    0.4098239839076996,
                    0.23705482482910156,
                    0.18135972321033478
                ]
            ]
        ],
        [
            [
                [
                    0.04051269218325615,
                    0.28123921155929565,
                    0.4196006953716278
                ],
                [
                    0.3968687057495117,
                    0.06591665744781494,
                    -0.2680602967739105
                ],
                [
                    -0.5069059729576111,
                    -0.5589737296104431,
                    -0.16786766052246094
                ]
            ]
        ],
        [
            [
                [
                    0.048315007239580154,
                    -0.7494821548461914,
                    -0.4281950891017914
                ],
                [
                    0.45236116647720337,
                    -0.2643878757953644,
                    0.10062742233276367
                ],
                [
                    0.35604190826416016,
                    0.4628898501396179,
                    0.11689187586307526
                ]
            ]
        ],
        [
            [
                [
                    0.26258179545402527,
                    0.07841061800718307,
                    -0.1681077629327774
                ],
                [
                    0.34213051199913025,
                    -0.2402770221233368,
                    -0.30598506331443787
                ],
                [
                    0.0906064435839653,
                    0.22421365976333618,
                    -0.16276003420352936
                ]
            ]
        ],
        [
            [
                [
                    0.17066365480422974,
                    -0.5504417419433594,
                    -0.1339210718870163
                ],
                [
                    -0.22293581068515778,
                    -0.3492024838924408,
                    -0.4703366160392761
                ],
                [
                    0.5644985437393188,
                    0.5346540808677673,
                    0.4498617649078369
                ]
            ]
        ],
        [
            [
                [
                    -0.1279245764017105,
                    0.2748567461967468,
                    0.45327767729759216
                ],
                [
                    -0.1533307582139969,
                    -0.7175620198249817,
                    -0.26930883526802063
                ],
                [
                    0.49166908860206604,
                    -0.01652195304632187,
                    -0.07282692939043045
                ]
            ]
        ],
        [
            [
                [
                    0.21437951922416687,
                    0.19497095048427582,
                    0.35143449902534485
                ],
                [
                    -0.11225636303424835,
                    0.15243297815322876,
                    0.41879141330718994
                ],
                [
                    -0.7161308526992798,
                    -0.6942622065544128,
                    0.15373672544956207
                ]
            ]
        ],
        [
            [
                [
                    -0.5315225124359131,
                    -0.34822237491607666,
                    0.20755819976329803
                ],
                [
                    -0.49526140093803406,
                    -0.044129882007837296,
                    0.28252825140953064
                ],
                [
                    -0.401236355304718,
                    0.13220882415771484,
                    0.37030309438705444
                ]
            ]
        ],
        [
            [
                [
                    0.19205625355243683,
                    0.1626969426870346,
                    0.22140541672706604
                ],
                [
                    0.29982709884643555,
                    0.22997939586639404,
                    0.21232099831104279
                ],
                [
                    0.2714094817638397,
                    0.2605316936969757,
                    0.04759963974356651
                ]
            ]
        ],
        [
            [
                [
                    0.2960622012615204,
                    -0.12172100692987442,
                    -0.527148425579071
                ],
                [
                    0.23307059705257416,
                    0.3926953971385956,
                    -0.5338216423988342
                ],
                [
                    0.10806945711374283,
                    0.6333850026130676,
                    0.18574151396751404
                ]
            ]
        ],
        [
            [
                [
                    -0.03799430653452873,
                    -0.5512591600418091,
                    -0.3226889669895172
                ],
                [
                    0.22665271162986755,
                    0.5152732729911804,
                    0.2975657880306244
                ],
                [
                    -0.24010951817035675,
                    0.15143854916095734,
                    -0.16422684490680695
                ]
            ]
        ],
        [
            [
                [
                    0.22514888644218445,
                    0.33547621965408325,
                    0.2760317027568817
                ],
                [
                    0.14210453629493713,
                    0.4676617980003357,
                    -0.2896878123283386
                ],
                [
                    0.2614804208278656,
                    -0.2862081229686737,
                    -0.5970696210861206
                ]
            ]
        ],
        [
            [
                [
                    -0.638236403465271,
                    -0.7990469932556152,
                    0.02489590272307396
                ],
                [
                    -0.7120214700698853,
                    0.3033963739871979,
                    0.3132517635822296
                ],
                [
                    -0.054074328392744064,
                    0.47136390209198,
                    0.5747090578079224
                ]
            ]
        ]
    ],
    "layer1.0.bias": [
        0.0943959504365921,
        -0.0725281611084938,
        0.00039512169314548373,
        -0.014337316155433655,
        -0.013484238646924496,
        -0.14607581496238708,
        -0.2896508574485779,
        -0.05890791118144989,
        -0.31847164034843445,
        -0.15436075627803802,
        0.10455339401960373,
        0.35898807644844055,
        -0.08383610844612122,
        -0.012595810927450657,
        -0.05879649519920349,
        -0.19846875965595245,
        -0.09981615096330643,
        0.01099840085953474,
        -0.2876496911048889,
        -0.039796341210603714,
        0.08273712545633316,
        -0.10290654748678207,
        -0.09503187239170074,
        -0.012710838578641415,
        0.0033078014384955168,
        -0.09443996101617813,
        0.12585808336734772,
        -0.30798307061195374,
        -0.17655985057353973,
        -0.01663099229335785,
        -0.24186986684799194,
        0.008189989253878593
    ],
    "layer2.0.weight": [
        [
            [
                [
                    0.014633328653872013,
                    -0.012644628062844276,
                    0.010273119434714317
                ],
                [
                    -0.02227931283414364,
                    -0.17229115962982178,
                    -0.09415661543607712
                ],
                [
                    -0.09970590472221375,
                    -0.04541236534714699,
                    -0.23480640351772308
                ]
            ],
            [
                [
                    -0.060086388140916824,
                    0.07431546598672867,
                    -0.07422514259815216
                ],
                [
                    0.058549802750349045,
                    -0.1482924073934555,
                    -0.11277160048484802
                ],
                [
                    -0.10226189345121384,
                    0.06960824131965637,
                    0.10847772657871246
                ]
            ],
            [
                [
                    -0.09716024249792099,
                    -0.07855459302663803,
                    0.03706163167953491
                ],
                [
                    0.1810857355594635,
                    0.03244180604815483,
                    -0.002988547785207629
                ],
                [
                    -0.08499928563833237,
                    -0.04748298600316048,
                    0.018636079505085945
                ]
            ],
            [
                [
                    0.009144206531345844,
                    0.052085988223552704,
                    -0.04038723185658455
                ],
                [
                    0.015137538313865662,
                    -0.127070352435112,
                    -0.13266003131866455
                ],
                [
                    0.041005801409482956,
                    0.22027868032455444,
                    0.06617606431245804
                ]
            ],
            [
                [
                    -0.16948507726192474,
                    -0.1340479701757431,
                    0.04478960111737251
                ],
                [
                    -0.1848643571138382,
                    -0.05874085798859596,
                    0.0546150766313076
                ],
                [
                    -0.03013000264763832,
                    0.09945637732744217,
                    0.08228293061256409
                ]
            ],
            [
                [
                    -0.009092952124774456,
                    -0.06010303646326065,
                    0.05463646352291107
                ],
                [
                    0.06604820489883423,
                    0.046856969594955444,
                    -0.062041956931352615
                ],
                [
                    -0.009624378755688667,
                    -0.00884195975959301,
                    -0.10673707723617554
                ]
            ],
            [
                [
                    -0.07840856164693832,
                    0.02480827271938324,
                    0.007184581831097603
                ],
                [
                    -0.029636405408382416,
                    0.005603782366961241,
                    0.04802105203270912
                ],
                [
                    0.09775970876216888,
                    0.12413589656352997,
                    0.02728136256337166
                ]
            ],
            [
                [
                    -0.012877410277724266,
                    -0.010577972047030926,
                    -0.13529308140277863
                ],
                [
                    -0.05086648464202881,
                    -0.15336067974567413,
                    0.009200481697916985
                ],
                [
                    0.0018850876949727535,
                    0.04284507781267166,
                    0.05573653429746628
                ]
            ],
            [
                [
                    -0.0037681683897972107,
                    -0.046779632568359375,
                    0.019021812826395035
                ],
                [
                    0.0372646190226078,
                    -0.03174977749586105,
                    -0.013257868587970734
                ],
                [
                    0.025426063686609268,
                    0.03286201134324074,
                    0.0007423236966133118
                ]
            ],
            [
                [
                    -0.06855428963899612,
                    0.03608275577425957,
                    0.04818429797887802
                ],
                [
                    -0.008892376907169819,
                    -0.013262080028653145,
                    0.04234199598431587
                ],
                [
                    0.105534628033638,
                    -0.031149746850132942,
                    -0.020806221291422844
                ]
            ],
            [
                [
                    -0.3283754587173462,
                    -0.32069510221481323,
                    0.04798724502325058
                ],
                [
                    -0.19829319417476654,
                    -0.3212776780128479,
                    -0.03347949683666229
                ],
                [
                    -0.1377202570438385,
                    -0.15685038268566132,
                    -0.07742322236299515
                ]
            ],
            [
                [
                    -0.12162178754806519,
                    -0.08436143398284912,
                    -0.13121004402637482
                ],
                [
                    -0.16150303184986115,
                    -0.15521246194839478,
                    -0.04208165034651756
                ],
                [
                    -0.26363134384155273,
                    -0.24434833228588104,
                    -0.11206651479005814
                ]
            ],
            [
                [
                    -0.0239288117736578,
                    0.08023099601268768,
                    -0.0710131898522377
                ],
                [
                    -0.07915502041578293,
                    -0.16250379383563995,
                    0.04119781032204628
                ],
                [
                    -0.11676324903964996,
                    0.0566382072865963,
                    0.04796881601214409
                ]
            ],
            [
                [
                    -0.2903493642807007,
                    -0.11246394366025925,
                    -0.06746747344732285
                ],
                [
                    -0.18134164810180664,
                    -0.17557881772518158,
                    -0.007651532534509897
                ],
                [
                    0.003957998938858509,
                    -0.06971287727355957,
                    0.08378125727176666
                ]
            ],
            [
                [
                    -0.03725038468837738,
                    -0.04659908637404442,
                    0.047085534781217575
                ],
                [
                    -0.03617774695158005,
                    -0.049561791121959686,
                    0.0003645271062850952
                ],
                [
                    -0.04773007705807686,
                    -0.05700073391199112,
                    0.03338773921132088
                ]
            ],
            [
                [
                    -0.10851893573999405,
                    -0.041379041969776154,
                    0.10343575477600098
                ],
                [
                    0.06482066959142685,
                    0.03793663904070854,
                    0.0051000951789319515
                ],
                [
                    -0.05796124413609505,
                    0.05196916684508324,
                    0.02691984362900257
                ]
            ],
            [
                [
                    -0.04189864546060562,
                    -0.06923847645521164,
                    0.019054297357797623
                ],
                [
                    0.18744012713432312,
                    0.1817696988582611,
                    0.0421721413731575
                ],
                [
                    0.14694786071777344,
                    -0.0032418561168015003,
                    0.10580836236476898
                ]
            ],
            [
                [
                    -0.41777798533439636,
                    -0.18083125352859497,
                    -0.09340141713619232
                ],
                [
                    -0.3017280399799347,
                    -0.38224121928215027,
                    -0.15458141267299652
                ],
                [
                    -0.041716318577528,
                    -0.17699961364269257,
                    0.03700312227010727
                ]
            ],
            [
                [
                    -0.0020922806579619646,
                    -0.013716617599129677,
                    -0.021278141066432
                ],
                [
                    0.05533870682120323,
                    -0.053274426609277725,
                    0.025561749935150146
                ],
                [
                    -0.02260151132941246,
                    -0.07865411043167114,
                    -0.014831475913524628
                ]
            ],
            [
                [
                    0.0027412567287683487,
                    0.03703269362449646,
                    0.14343050122261047
                ],
                [
                    0.1625925898551941,
                    0.08389471471309662,
                    -0.108975850045681
                ],
                [
                    0.025040069594979286,
                    -0.048319924622774124,
                    -0.07816331833600998
                ]
            ],
            [
                [
                    -0.011487998068332672,
                    -0.19030830264091492,
                    -0.06476622074842453
                ],
                [
                    -0.05598384141921997,
                    -0.09248369932174683,
                    0.005101870745420456
                ],
                [
                    -0.14727599918842316,
                    -0.030729491263628006,
                    0.03452206403017044
                ]
            ],
            [
                [
                    -0.14129705727100372,
                    -0.059314411133527756,
                    0.1175481528043747
                ],
                [
                    0.05477195233106613,
                    0.05218684300780296,
                    0.026925433427095413
                ],
                [
                    -0.14914467930793762,
                    -0.0424342155456543,
                    0.05996505543589592
                ]
            ],
            [
                [
                    -0.1200239509344101,
                    0.005470269359648228,
                    0.03596140071749687
                ],
                [
                    -0.05978577584028244,
                    -0.040471792221069336,
                    0.03799634426832199
                ],
                [
                    0.07612930983304977,
                    0.003179897554218769,
                    0.003195852739736438
                ]
            ],
            [
                [
                    -0.07007082551717758,
                    -0.0324430838227272,
                    0.11955820769071579
                ],
                [
                    0.10897884517908096,
                    0.07260651141405106,
                    -0.02072787471115589
                ],
                [
                    -0.09254108369350433,
                    0.005277793388813734,
                    0.01707061380147934
                ]
            ],
            [
                [
                    -0.18678660690784454,
                    -0.20502685010433197,
                    -0.09410135447978973
                ],
                [
                    -0.06803052127361298,
                    -0.14674784243106842,
                    0.07789435237646103
                ],
                [
                    0.046674564480781555,
                    0.18839585781097412,
                    0.21152488887310028
                ]
            ],
            [
                [
                    -0.011164870113134384,
                    -0.024894461035728455,
                    -0.07700032740831375
                ],
                [
                    -0.10243374854326248,
                    0.035938411951065063,
                    0.12534977495670319
                ],
                [
                    -0.0930950716137886,
                    -0.0025067850947380066,
                    0.08688676357269287
                ]
            ],
            [
                [
                    0.01599668152630329,
                    -0.04527388513088226,
                    -0.02685275301337242
                ],
                [
                    -0.04439311474561691,
                    -0.13377061486244202,
                    -0.20646882057189941
                ],
                [
                    -0.08381586521863937,
                    -0.10259103775024414,
                    -0.2600483000278473
                ]
            ],
            [
                [
                    -0.020932355895638466,
                    -0.03149542957544327,
                    0.06924351304769516
                ],
                [
                    0.07095260918140411,
                    0.07479982823133469,
                    -0.0062005892395973206
                ],
                [
                    0.07903584092855453,
                    0.011974268592894077,
                    -0.007253178860992193
                ]
            ],
            [
                [
                    -0.16920223832130432,
                    0.043788302689790726,
                    -0.011038700118660927
                ],
                [
                    -0.08303424715995789,
                    -0.07330731302499771,
                    0.15037119388580322
                ],
                [
                    -0.003071407787501812,
                    0.08364976197481155,
                    0.2591911256313324
                ]
            ],
            [
                [
                    -0.14851348102092743,
                    -0.23125657439231873,
                    0.03258994594216347
                ],
                [
                    0.060044627636671066,
                    -0.023415401577949524,
                    0.014386533759534359
                ],
                [
                    -0.011910866014659405,
                    -0.09617502987384796,
                    0.09323576092720032
                ]
            ],
            [
                [
                    -0.12573711574077606,
                    0.016616346314549446,
                    0.13412439823150635
                ],
                [
                    -0.07516101002693176,
                    0.0458584688603878,
                    0.16695234179496765
                ],
                [
                    0.06872038543224335,
                    0.05147409811615944,
                    0.06284909695386887
                ]
            ],
            [
                [
                    -0.05379275977611542,
                    -0.14213714003562927,
                    0.15945842862129211
                ],
                [
                    0.16012802720069885,
                    0.0027360657695680857,
                    -0.0492982380092144
                ],
                [
                    -0.1151038110256195,
                    0.01071104034781456,
                    -0.09807809442281723
                ]
            ]
        ],
        [
            [
                [
                    0.07730897516012192,
                    0.05931321159005165,
                    -0.3375501036643982
                ],
                [
                    0.1272595077753067,
                    0.07702354341745377,
                    -0.21219134330749512
                ],
                [
                    0.03757166862487793,
                    -0.09993083775043488,
                    -0.11382366716861725
                ]
            ],
            [
                [
                    0.08400584757328033,
                    0.004049223382025957,
                    -0.5729774832725525
                ],
                [
                    0.20048604905605316,
                    0.021383795887231827,
                    -0.8265083432197571
                ],
                [
                    0.03424665704369545,
                    -0.1812465935945511,
                    -0.530265212059021
                ]
            ],
            [
                [
                    -0.21308749914169312,
                    -0.11802271753549576,
                    -0.29167822003364563
                ],
                [
                    -0.0025933566503226757,
                    -0.08546838164329529,
                    -0.1008964255452156
                ],
                [
                    -0.18169720470905304,
                    -0.22953063249588013,
                    -0.2341732382774353
                ]
            ],
            [
                [
                    0.11949004232883453,
                    0.04242249205708504,
                    -0.3695578873157501
                ],
                [
                    0.1644551157951355,
                    -0.0074457330629229546,
                    -0.3537648320198059
                ],
                [
                    -0.0392911322414875,
                    -0.24564923346042633,
                    -0.16609103977680206
                ]
            ],
            [
                [
                    -0.10376608371734619,
                    -0.19512291252613068,
                    -0.02666662074625492
                ],
                [
                    -0.26722320914268494,
                    -0.02391936630010605,
                    -0.041741903871297836
                ],
                [
                    -0.1173609271645546,
                    0.10012076050043106,
                    -0.0013566791312769055
                ]
            ],
            [
                [
                    -0.0207561906427145,
                    -0.012462970800697803,
                    -0.20473749935626984
                ],
                [
                    0.1462627500295639,
                    0.0709834024310112,
                    -0.12623657286167145
                ],
                [
                    0.12503641843795776,
                    -0.0492267832159996,
                    -0.22864551842212677
                ]
            ],
            [
                [
                    0.03622232377529144,
                    0.11942103505134583,
                    0.02058546058833599
                ],
                [
                    0.06332828104496002,
                    0.11817675828933716,
                    0.0031307474710047245
                ],
                [
                    0.06953444331884384,
                    0.1171986535191536,
                    -0.08697715401649475
                ]
            ],
            [
                [
                    0.11039717495441437,
                    -0.023663995787501335,
                    -0.32458627223968506
                ],
                [
                    0.032048653811216354,
                    0.012575228698551655,
                    -0.41252267360687256
                ],
                [
                    -0.02280999906361103,
                    -0.16097207367420197,
                    -0.309142529964447
                ]
            ],
            [
                [
                    0.009178657084703445,
                    -0.027482949197292328,
                    -0.018108654767274857
                ],
                [
                    0.05051474645733833,
                    0.02345236763358116,
                    0.042724061757326126
                ],
                [
                    0.05180202051997185,
                    0.05622055009007454,
                    0.011484634131193161
                ]
            ],
            [
                [
                    0.04291805252432823,
                    0.08001114428043365,
                    0.025094974786043167
                ],
                [
                    0.030740264803171158,
                    0.11715076118707657,
                    -0.09160858392715454
                ],
                [
                    0.06872259825468063,
                    0.039934154599905014,
                    -0.12783865630626678
                ]
            ],
            [
                [
                    -0.5016387104988098,
                    -0.0806298553943634,
                    0.2241220325231552
                ],
                [
                    -0.6231281757354736,
                    0.15695612132549286,
                    0.16859713196754456
                ],
                [
                    0.10268273204565048,
                    0.2157965451478958,
                    0.21538519859313965
                ]
            ],
            [
                [
                    -0.0015156008303165436,
                    -0.09809647500514984,
                    0.06576795876026154
                ],
                [
                    -0.05914229899644852,
                    -0.05692962557077408,
                    0.08566277474164963
                ],
                [
                    -0.16722476482391357,
                    -0.11672983318567276,
                    -0.011148140765726566
                ]
            ],
            [
                [
                    0.07003491371870041,
                    0.02463522180914879,
                    -0.34522777795791626
                ],
                [
                    -0.016318976879119873,
                    -0.08926083892583847,
                    -0.32269400358200073
                ],
                [
                    0.011527713388204575,
                    -0.16391417384147644,
                    -0.35085806250572205
                ]
            ],
            [
                [
                    -0.5545158386230469,
                    0.019351329654455185,
                    0.17469920217990875
                ],
                [
                    -0.3590441644191742,
                    0.17372168600559235,
                    0.1271917223930359
                ],
                [
                    -0.024256180971860886,
                    0.14457719027996063,
                    0.004284853581339121
                ]
            ],
            [
                [
                    0.02983037754893303,
                    -0.02552124485373497,
                    -0.03550463914871216
                ],
                [
                    -0.041635237634181976,
                    0.053711820393800735,
                    -0.004192374646663666
                ],
                [
                    -0.024424683302640915,
                    0.04745088145136833,
                    0.025271985679864883
                ]
            ],
            [
                [
                    -0.11032170057296753,
                    -0.0970543920993805,
                    -0.010464786551892757
                ],
                [
                    -0.09064938127994537,
                    0.07726293802261353,
                    0.03468644991517067
                ],
                [
                    -0.02466358244419098,
                    0.00939133670181036,
                    -0.060803622007369995
                ]
            ],
            [
                [
                    -0.198475182056427,
                    0.07337900251150131,
                    -0.04232899472117424
                ],
                [
                    -0.0380367785692215,
                    0.04220205917954445,
                    -0.007463646586984396
                ],
                [
                    0.09689038246870041,
                    0.08497138321399689,
                    0.01711122877895832
                ]
            ],
            [
                [
                    -1.0605392456054688,
                    -0.027837296947836876,
                    0.24719877541065216
                ],
                [
                    -0.8589840531349182,
                    0.1505116969347,
                    0.23472705483436584
                ],
                [
                    -0.08270273357629776,
                    0.16650329530239105,
                    0.16274869441986084
                ]
            ],
            [
                [
                    0.06636645644903183,
                    0.11142747104167938,
                    -0.07371468096971512
                ],
                [
                    0.10481633245944977,
                    0.15162572264671326,
                    -0.08726444840431213
                ],
                [
                    0.10804688185453415,
                    0.05230751261115074,
                    -0.18839813768863678
                ]
            ],
            [
                [
                    -0.038411807268857956,
                    0.030605794861912727,
                    -0.28483644127845764
                ],
                [
                    0.1551038920879364,
                    0.03631926700472832,
                    -0.11587337404489517
                ],
                [
                    0.03208369016647339,
                    -0.18148499727249146,
                    -0.22521530091762543
                ]
            ],
            [
                [
                    -0.02081937901675701,
                    -0.23160521686077118,
                    -0.12226154655218124
                ],
                [
                    -0.10848010331392288,
                    -0.09893840551376343,
                    -0.1169457957148552
                ],
                [
                    -0.1608913093805313,
                    -0.021570591256022453,
                    -0.02598481997847557
                ]
            ],
            [
                [
                    -0.3046647608280182,
                    -0.20957829058170319,
                    -0.04450742527842522
                ],
                [
                    -0.1963653713464737,
                    -0.07700235396623611,
                    -0.0840449333190918
                ],
                [
                    -0.24503397941589355,
                    -0.1018342599272728,
                    -0.21636855602264404
                ]
            ],
            [
                [
                    -0.270015150308609,
                    0.10838725417852402,
                    0.12135741859674454
                ],
                [
                    -0.13560517132282257,
                    0.04792088270187378,
                    0.003854527836665511
                ],
                [
                    0.03851073235273361,
                    0.09585890918970108,
                    0.015281951986253262
                ]
            ],
            [
                [
                    -0.10126253217458725,
                    -0.032026149332523346,
                    -0.07667310535907745
                ],
                [
                    -0.054704565554857254,
                    -0.14079807698726654,
                    -0.06943345069885254
                ],
                [
                    -0.109340138733387,
                    -0.2615620791912079,
                    -0.13385604321956635
                ]
            ],
            [
                [
                    -0.12358488887548447,
                    0.06421635299921036,
                    0.1718439906835556
                ],
                [
                    0.000513145059812814,
                    -0.11145776510238647,
                    -0.1498814970254898
                ],
                [
                    0.10504074394702911,
                    0.0473116897046566,
                    -0.27350354194641113
                ]
            ],
            [
                [
                    0.00753244711086154,
                    -0.06418929994106293,
                    -0.22714194655418396
                ],
                [
                    0.0044832974672317505,
                    -0.016933578997850418,
                    -0.2123829424381256
                ],
                [
                    -0.03942384198307991,
                    0.01339317299425602,
                    -0.205322265625
                ]
            ],
            [
                [
                    0.02666703425347805,
                    0.05239956080913544,
                    -0.21758659183979034
                ],
                [
                    0.15631550550460815,
                    0.01397180650383234,
                    -0.05678258091211319
                ],
                [
                    0.07046115398406982,
                    -0.07285192608833313,
                    -0.043083347380161285
                ]
            ],
            [
                [
                    0.023305315524339676,
                    0.12569652497768402,
                    0.06761329621076584
                ],
                [
                    0.004018392413854599,
                    0.13622327148914337,
                    -0.02498970553278923
                ],
                [
                    0.07017979770898819,
                    0.08497236669063568,
                    -0.02434724010527134
                ]
            ],
            [
                [
                    -0.3794443905353546,
                    0.048829466104507446,
                    0.04941722750663757
                ],
                [
                    -0.2810853123664856,
                    0.07474181056022644,
                    0.09096935391426086
                ],
                [
                    -0.03392951563000679,
                    -4.981906386092305e-05,
                    -0.05222083628177643
                ]
            ],
            [
                [
                    -0.09882459044456482,
                    -0.051547255367040634,
                    -0.06454473733901978
                ],
                [
                    0.0067927781492471695,
                    0.06720572710037231,
                    -0.013517453335225582
                ],
                [
                    -0.039642464369535446,
                    -0.0059345439076423645,
                    -0.1217074990272522
                ]
            ],
            [
                [
                    -0.15247340500354767,
                    0.07024979591369629,
                    0.08522727340459824
                ],
                [
                    -0.10920820385217667,
                    0.17514173686504364,
                    -0.001672233804129064
                ],
                [
                    0.03353513777256012,
                    0.12869270145893097,
                    0.002822672016918659
                ]
            ],
            [
                [
                    0.15935619175434113,
                    0.11229449510574341,
                    -0.5524408221244812
                ],
                [
                    0.1567441076040268,
                    0.14058569073677063,
                    -0.26956719160079956
                ],
                [
                    0.06576216965913773,
                    -0.3160771429538727,
                    -0.08739110827445984
                ]
            ]
        ],
        [
            [
                [
                    0.025220563635230064,
                    -0.09063757210969925,
                    -0.02046019956469536
                ],
                [
                    0.0013000658946111798,
                    -0.11634359508752823,
                    -0.004796331748366356
                ],
                [
                    -0.2893580496311188,
                    -0.18248894810676575,
                    -0.07618269324302673
                ]
            ],
            [
                [
                    -0.002099857898429036,
                    -0.252159059047699,
                    -0.14765886962413788
                ],
                [
                    -0.18361139297485352,
                    -0.27615875005722046,
                    -0.22692511975765228
                ],
                [
                    -0.3880178928375244,
                    -0.6069030165672302,
                    -0.13405382633209229
                ]
            ],
            [
                [
                    0.08728906512260437,
                    0.060594767332077026,
                    -0.11349529027938843
                ],
                [
                    -0.038460731506347656,
                    -0.007014346309006214,
                    -0.17027728259563446
                ],
                [
                    -0.33518049120903015,
                    -0.19400767982006073,
                    -0.2647097706794739
                ]
            ],
            [
                [
                    0.05843084305524826,
                    -0.11841174215078354,
                    -0.1887221336364746
                ],
                [
                    -0.08875080198049545,
                    -0.032077938318252563,
                    -0.024760795757174492
                ],
                [
                    -0.31045565009117126,
                    -0.37664949893951416,
                    -0.1719537079334259
                ]
            ],
            [
                [
                    -0.2856571078300476,
                    -0.005448993295431137,
                    -0.06277301162481308
                ],
                [
                    -0.09485584497451782,
                    0.07170458137989044,
                    -0.14230471849441528
                ],
                [
                    0.15773345530033112,
                    0.17075255513191223,
                    -0.1444784700870514
                ]
            ],
            [
                [
                    0.03652069717645645,
                    0.06511683017015457,
                    -0.2131979763507843
                ],
                [
                    0.04869433864951134,
                    -0.04249196499586105,
                    -0.15580299496650696
                ],
                [
                    -0.03940534219145775,
                    -0.26303955912590027,
                    -0.24997131526470184
                ]
            ],
            [
                [
                    0.03657268360257149,
                    0.00912459846585989,
                    -0.07390045374631882
                ],
                [
                    0.023873990401625633,
                    0.030288320034742355,
                    -0.07264669984579086
                ],
                [
                    0.06811218708753586,
                    -0.040466517210006714,
                    -0.16212143003940582
                ]
            ],
            [
                [
                    0.022264612838625908,
                    -0.14098213613033295,
                    -0.11302895843982697
                ],
                [
                    -0.15161925554275513,
                    -0.1355932503938675,
                    -0.07135047763586044
                ],
                [
                    -0.1785239726305008,
                    -0.2986027002334595,
                    -0.12691815197467804
                ]
            ],
            [
                [
                    0.0575520358979702,
                    0.021106619387865067,
                    -0.020061027258634567
                ],
                [
                    -0.0020752176642417908,
                    -0.009470220655202866,
                    0.012628812342882156
                ],
                [
                    0.006110038608312607,
                    0.047880660742521286,
                    0.0356396920979023
                ]
            ],
            [
                [
                    0.056538328528404236,
                    -0.00661274790763855,
                    -0.04744690656661987
                ],
                [
                    0.05401916801929474,
                    0.04339887574315071,
                    -0.10874877870082855
                ],
                [
                    0.03345571830868721,
                    -0.05354224890470505,
                    -0.17928965389728546
                ]
            ],
            [
                [
                    -0.23595832288265228,
                    0.15459392964839935,
                    0.07158394902944565
                ],
                [
                    -0.05366143584251404,
                    0.14075645804405212,
                    0.12833386659622192
                ],
                [
                    0.03449324145913124,
                    0.09809692203998566,
                    0.05319136381149292
                ]
            ],
            [
                [
                    0.0047071208246052265,
                    0.08546821773052216,
                    -0.00657560583204031
                ],
                [
                    -0.05220366641879082,
                    0.015662893652915955,
                    -0.022125273942947388
                ],
                [
                    -0.0636623352766037,
                    0.007970955222845078,
                    -0.03675032779574394
                ]
            ],
            [
                [
                    -0.04730745032429695,
                    -0.11304271966218948,
                    -0.05895561724901199
                ],
                [
                    -0.13949905335903168,
                    -0.20499376952648163,
                    -0.10984375327825546
                ],
                [
                    -0.19021262228488922,
                    -0.29153773188591003,
                    -0.14545615017414093
                ]
            ],
            [
                [
                    -0.15338413417339325,
                    0.22794035077095032,
                    0.0021272809244692326
                ],
                [
                    -0.017440998926758766,
                    0.101128488779068,
                    0.032269660383462906
                ],
                [
                    0.0976606085896492,
                    0.02379680797457695,
                    -0.1392551213502884
                ]
            ],
            [
                [
                    0.05239386484026909,
                    0.04437669739127159,
                    0.03146227076649666
                ],
                [
                    -0.046150386333465576,
                    0.05749480053782463,
                    0.019770298153162003
                ],
                [
                    -0.05782496929168701,
                    0.02257412299513817,
                    -0.054881639778614044
                ]
            ],
            [
                [
                    0.014635623432695866,
                    0.10813684016466141,
                    -0.135991171002388
                ],
                [
                    0.0488189272582531,
                    0.12789005041122437,
                    -0.11280990391969681
                ],
                [
                    0.006795946508646011,
                    -0.05729721486568451,
                    -0.1801903396844864
                ]
            ],
            [
                [
                    0.05167094245553017,
                    0.054023511707782745,
                    -0.10178166627883911
                ],
                [
                    0.17237655818462372,
                    0.13396517932415009,
                    -0.06893382221460342
                ],
                [
                    0.07152781635522842,
                    -0.04809214174747467,
                    -0.24528495967388153
                ]
            ],
            [
                [
                    -0.19808922708034515,
                    0.13196904957294464,
                    0.045096635818481445
                ],
                [
                    -0.08497635275125504,
                    0.21497346460819244,
                    0.12074187397956848
                ],
                [
                    0.0005293642170727253,
                    0.17601419985294342,
                    -0.015393618494272232
                ]
            ],
            [
                [
                    0.06863398849964142,
                    -0.026558933779597282,
                    -0.08933021128177643
                ],
                [
                    0.021707557141780853,
                    0.03941190242767334,
                    -0.060754552483558655
                ],
                [
                    0.03645371273159981,
                    -0.12150215357542038,
                    -0.1300583779811859
                ]
            ],
            [
                [
                    0.0573570691049099,
                    0.038407277315855026,
                    -0.10651560127735138
                ],
                [
                    0.14220455288887024,
                    -0.06145837530493736,
                    -0.12206515669822693
                ],
                [
                    -0.243381068110466,
                    -0.2878744900226593,
                    -0.26301130652427673
                ]
            ],
            [
                [
                    -0.1673402190208435,
                    -0.026166511699557304,
                    -0.051841579377651215
                ],
                [
                    -0.0887976661324501,
                    0.05256348103284836,
                    -0.13478755950927734
                ],
                [
                    -0.044526103883981705,
                    0.038311682641506195,
                    -0.0718144029378891
                ]
            ],
            [
                [
                    0.021743852645158768,
                    0.1598939597606659,
                    -0.043637752532958984
                ],
                [
                    -0.042836565524339676,
                    0.06319089233875275,
                    -0.03025027923285961
                ],
                [
                    -0.24893318116664886,
                    -0.18521684408187866,
                    -0.27116966247558594
                ]
            ],
            [
                [
                    -0.03084087371826172,
                    0.09939688444137573,
                    0.005821599159389734
                ],
                [
                    -0.026702968403697014,
                    0.09914003312587738,
                    -0.040520623326301575
                ],
                [
                    0.037453047931194305,
                    0.02185070514678955,
                    -0.13309825956821442
                ]
            ],
            [
                [
                    0.022389516234397888,
                    0.10214487463235855,
                    -0.021325673907995224
                ],
                [
                    -0.009748340584337711,
                    -0.010038272477686405,
                    -0.007392727769911289
                ],
                [
                    -0.331576406955719,
                    -0.1162358820438385,
                    -0.1742403358221054
                ]
            ],
            [
                [
                    -0.008476885966956615,
                    0.09562649577856064,
                    0.17349399626255035
                ],
                [
                    0.08517275005578995,
                    0.08424296230077744,
                    -0.14390453696250916
                ],
                [
                    -0.07282307744026184,
                    -0.19095303118228912,
                    -0.26077982783317566
                ]
            ],
            [
                [
                    -0.1626160442829132,
                    -0.12928912043571472,
                    -0.09829077869653702
                ],
                [
                    -0.07497323304414749,
                    -0.046517856419086456,
                    -0.1258482187986374
                ],
                [
                    -0.13239790499210358,
                    -0.16613034904003143,
                    -0.054410070180892944
                ]
            ],
            [
                [
                    0.05203147605061531,
                    -0.06849304586648941,
                    0.051974523812532425
                ],
                [
                    -0.04121268540620804,
                    -0.19218024611473083,
                    0.03622974827885628
                ],
                [
                    -0.19934965670108795,
                    -0.1064673513174057,
                    -0.006031956057995558
                ]
            ],
            [
                [
                    0.03999652713537216,
                    0.05189422518014908,
                    -0.019075945019721985
                ],
                [
                    0.1282525658607483,
                    0.08963759988546371,
                    -0.1559544801712036
                ],
                [
                    0.10944552719593048,
                    0.014737187884747982,
                    -0.19301851093769073
                ]
            ],
            [
                [
                    -0.05961338058114052,
                    0.12895888090133667,
                    -0.17035406827926636
                ],
                [
                    0.08932619541883469,
                    0.14339971542358398,
                    -0.15725600719451904
                ],
                [
                    0.03204654902219772,
                    -0.09672186523675919,
                    -0.30692270398139954
                ]
            ],
            [
                [
                    0.0775793269276619,
                    0.045078907161951065,
                    -0.1500799059867859
                ],
                [
                    0.014330231584608555,
                    0.07610786706209183,
                    -0.07785844802856445
                ],
                [
                    0.03219543769955635,
                    -0.01288154162466526,
                    -0.1400187611579895
                ]
            ],
            [
                [
                    -0.08266088366508484,
                    -0.008897478692233562,
                    -0.06852540373802185
                ],
                [
                    0.06912898272275925,
                    0.10105276107788086,
                    -0.12097729742527008
                ],
                [
                    0.1002124473452568,
                    0.06952140480279922,
                    -0.10608891397714615
                ]
            ],
            [
                [
                    0.09335868805646896,
                    0.044475484639406204,
                    -0.23487813770771027
                ],
                [
                    0.13320356607437134,
                    -0.25219833850860596,
                    0.03814580664038658
                ],
                [
                    -0.4513363838195801,
                    -0.3674609959125519,
                    -0.058127351105213165
                ]
            ]
        ],
        [
            [
                [
                    0.03451334312558174,
                    0.06751823425292969,
                    0.06470155715942383
                ],
                [
                    -0.08828951418399811,
                    -0.53865647315979,
                    0.14034762978553772
                ],
                [
                    -0.06006418541073799,
                    -0.1817355901002884,
                    -0.1895165741443634
                ]
            ],
            [
                [
                    -0.03124541975557804,
                    0.05602973699569702,
                    0.07797213643789291
                ],
                [
                    -0.0675930380821228,
                    -0.3602621853351593,
                    0.11903966218233109
                ],
                [
                    0.06803642958402634,
                    0.003855994436889887,
                    -0.030545072630047798
                ]
            ],
            [
                [
                    -0.10507909953594208,
                    -0.2190346121788025,
                    -0.1322353482246399
                ],
                [
                    -0.02506936341524124,
                    0.12820149958133698,
                    0.005347490776330233
                ],
                [
                    -0.24142491817474365,
                    0.11360517889261246,
                    0.08155558258295059
                ]
            ],
            [
                [
                    0.08781927078962326,
                    -0.0474153496325016,
                    0.13742227852344513
                ],
                [
                    -0.166477233171463,
                    -0.06609280407428741,
                    0.1805572360754013
                ],
                [
                    0.1598033607006073,
                    0.05172422155737877,
                    -0.112254798412323
                ]
            ],
            [
                [
                    -0.15719446539878845,
                    0.2174704670906067,
                    -0.08830049633979797
                ],
                [
                    0.04970488324761391,
                    -0.20851726830005646,
                    -0.2017296552658081
                ],
                [
                    0.010190660133957863,
                    0.06937386840581894,
                    0.0538724884390831
                ]
            ],
            [
                [
                    0.0015459985006600618,
                    -0.0787280723452568,
                    -0.08753652125597
                ],
                [
                    -0.028277749195694923,
                    -0.024674179032444954,
                    0.013952133245766163
                ],
                [
                    -0.15864939987659454,
                    -0.00795956701040268,
                    0.038911398500204086
                ]
            ],
            [
                [
                    0.018275469541549683,
                    0.0070711830630898476,
                    -0.16754275560379028
                ],
                [
                    0.097415991127491,
                    -0.05356498435139656,
                    -0.11254367977380753
                ],
                [
                    -0.008359195664525032,
                    0.02449779585003853,
                    -0.07796771824359894
                ]
            ],
            [
                [
                    -0.07013391703367233,
                    0.006596988067030907,
                    0.13908220827579498
                ],
                [
                    0.07402221113443375,
                    -0.08413127064704895,
                    -0.04595956578850746
                ],
                [
                    0.11458592861890793,
                    0.09459521621465683,
                    0.06472978740930557
                ]
            ],
            [
                [
                    0.039435651153326035,
                    0.014619071036577225,
                    -0.04806794598698616
                ],
                [
                    0.0037987269461154938,
                    0.01881049945950508,
                    -0.042108602821826935
                ],
                [
                    0.02506166324019432,
                    0.03333824500441551,
                    0.031142201274633408
                ]
            ],
            [
                [
                    0.06258217245340347,
                    0.012640601024031639,
                    -0.13842163980007172
                ],
                [
                    0.008822261355817318,
                    -0.1337948739528656,
                    -0.04524469003081322
                ],
                [
                    0.020171809941530228,
                    0.01636490598320961,
                    0.006591078359633684
                ]
            ],
            [
                [
                    0.0855007916688919,
                    0.17987702786922455,
                    0.17283476889133453
                ],
                [
                    -0.2741226553916931,
                    -0.08661502599716187,
                    -0.28007590770721436
                ],
                [
                    -0.39143455028533936,
                    -0.17493611574172974,
                    -0.04447648674249649
                ]
            ],
            [
                [
                    -0.24981269240379333,
                    -0.3034384846687317,
                    -0.13579913973808289
                ],
                [
                    -0.2610391676425934,
                    0.01710371859371662,
                    -0.09870275110006332
                ],
                [
                    -0.31955721974372864,
                    -0.026477046310901642,
                    -0.11763699352741241
                ]
            ],
            [
                [
                    -0.0504608191549778,
                    -0.18212638795375824,
                    -0.053961705416440964
                ],
                [
                    0.03425087779760361,
                    -0.23215973377227783,
                    0.008067942224442959
                ],
                [
                    0.13204613327980042,
                    0.09606430679559708,
                    0.10573405027389526
                ]
            ],
            [
                [
                    -0.08453243225812912,
                    0.1322031170129776,
                    0.06991738080978394
                ],
                [
                    0.02879902347922325,
                    0.06529530882835388,
                    -0.12661337852478027
                ],
                [
                    -0.23672732710838318,
                    -0.08512885123491287,
                    0.10334206372499466
                ]
            ],
            [
                [
                    -0.024010758846998215,
                    0.053483542054891586,
                    -0.025845542550086975
                ],
                [
                    0.03030235692858696,
                    -0.048157740384340286,
                    0.04937951639294624
                ],
                [
                    0.05397326126694679,
                    -0.02962782233953476,
                    0.054211463779211044
                ]
            ],
            [
                [
                    -0.15805049240589142,
                    -0.14124234020709991,
                    -0.01766570843756199
                ],
                [
                    0.11448080092668533,
                    0.14232835173606873,
                    -0.028442198410630226
                ],
                [
                    -0.10052838176488876,
                    0.18161451816558838,
                    0.10856056213378906
                ]
            ],
            [
                [
                    0.12515243887901306,
                    0.15130284428596497,
                    -0.05128530412912369
                ],
                [
                    0.019888412207365036,
                    -0.14261554181575775,
                    0.07303071022033691
                ],
                [
                    -0.143915057182312,
                    0.05948273092508316,
                    0.038502078503370285
                ]
            ],
            [
                [
                    -0.04211490973830223,
                    0.18091727793216705,
                    0.15585337579250336
                ],
                [
                    0.08410362154245377,
                    0.13976211845874786,
                    -0.13033676147460938
                ],
                [
                    -0.2192227691411972,
                    -0.0406520739197731,
                    0.11451933532953262
                ]
            ],
            [
                [
                    0.06416545808315277,
                    -0.06035812944173813,
                    -0.12982620298862457
                ],
                [
                    -0.026357438415288925,
                    -0.08566910773515701,
                    -0.0174981988966465
                ],
                [
                    0.020610371604561806,
                    0.02729707770049572,
                    0.022955849766731262
                ]
            ],
            [
                [
                    0.1352274864912033,
                    0.0007586114224977791,
                    -0.025399785488843918
                ],
                [
                    -0.09563081711530685,
                    0.012320766225457191,
                    0.12168203294277191
                ],
                [
                    -0.16189835965633392,
                    -0.11067454516887665,
                    0.04242992401123047
                ]
            ],
            [
                [
                    -0.08927388489246368,
                    0.035198308527469635,
                    -0.08446000516414642
                ],
                [
                    -0.19139763712882996,
                    -0.28983891010284424,
                    -0.3350789248943329
                ],
                [
                    0.013568871654570103,
                    -0.019421249628067017,
                    0.07589069753885269
                ]
            ],
            [
                [
                    0.009943267330527306,
                    -0.2600466310977936,
                    -0.191005676984787
                ],
                [
                    -0.025472810491919518,
                    0.24900254607200623,
                    0.1101393774151802
                ],
                [
                    -0.2732290029525757,
                    0.14269495010375977,
                    0.16048122942447662
                ]
            ],
            [
                [
                    0.06655080616474152,
                    0.052892982959747314,
                    0.00666767219081521
                ],
                [
                    0.06334566324949265,
                    0.10392040014266968,
                    -0.11085975915193558
                ],
                [
                    -0.16182255744934082,
                    -0.056794729083776474,
                    0.010489202104508877
                ]
            ],
            [
                [
                    0.04024769738316536,
                    -0.18465156853199005,
                    -0.10179326683282852
                ],
                [
                    -0.06348194181919098,
                    0.11996704339981079,
                    0.10468626022338867
                ],
                [
                    -0.13782252371311188,
                    0.182609423995018,
                    0.12334436923265457
                ]
            ],
            [
                [
                    -0.012408964335918427,
                    -0.09370284527540207,
                    -0.2281278371810913
                ],
                [
                    -0.11711195856332779,
                    0.2381054311990738,
                    0.13282297551631927
                ],
                [
                    0.059857819229364395,
                    0.19342364370822906,
                    0.07288754731416702
                ]
            ],
            [
                [
                    -0.11531292647123337,
                    -0.07319313287734985,
                    -0.0343715064227581
                ],
                [
                    0.04085202515125275,
                    -0.13624398410320282,
                    -0.0771298035979271
                ],
                [
                    0.08612354099750519,
                    0.007444154471158981,
                    0.14207346737384796
                ]
            ],
            [
                [
                    0.05608087405562401,
                    0.00559068052098155,
                    0.07368522137403488
                ],
                [
                    -0.08420132845640182,
                    -0.4287695288658142,
                    0.127811461687088
                ],
                [
                    -0.0032027815468609333,
                    -0.1963808834552765,
                    -0.2333707958459854
                ]
            ],
            [
                [
                    0.06988205760717392,
                    -0.03171723335981369,
                    -0.14403922855854034
                ],
                [
                    0.03125849738717079,
                    -0.015951475128531456,
                    -0.08841663599014282
                ],
                [
                    -0.06915508210659027,
                    0.035839274525642395,
                    0.043623484671115875
                ]
            ],
            [
                [
                    -0.07300466299057007,
                    -0.05615959316492081,
                    -0.07856619358062744
                ],
                [
                    0.1279037445783615,
                    0.14075227081775665,
                    0.047932133078575134
                ],
                [
                    -0.08620089292526245,
                    0.16882668435573578,
                    0.15085719525814056
                ]
            ],
            [
                [
                    -0.08496839553117752,
                    -0.08375799655914307,
                    -0.046696245670318604
                ],
                [
                    0.09947288036346436,
                    0.03186473622918129,
                    -0.06868408620357513
                ],
                [
                    -0.18486660718917847,
                    0.20564603805541992,
                    0.08338717371225357
                ]
            ],
            [
                [
                    0.14191336929798126,
                    0.20617690682411194,
                    -0.07408112287521362
                ],
                [
                    0.08884922415018082,
                    -0.024117743596434593,
                    -0.1386527717113495
                ],
                [
                    -0.1697823703289032,
                    0.03854356333613396,
                    -0.033882852643728256
                ]
            ],
            [
                [
                    -0.010421809740364552,
                    0.262732595205307,
                    0.059341151267290115
                ],
                [
                    -0.1847272515296936,
                    -0.3568357825279236,
                    0.07713618129491806
                ],
                [
                    -0.2645832598209381,
                    -0.2220722734928131,
                    -0.10495050251483917
                ]
            ]
        ],
        [
            [
                [
                    -0.037865571677684784,
                    0.07326258718967438,
                    0.058098893612623215
                ],
                [
                    -0.09008640795946121,
                    0.06649637967348099,
                    0.08547079563140869
                ],
                [
                    0.016312982887029648,
                    0.02635566145181656,
                    -0.005761159583926201
                ]
            ],
            [
                [
                    -0.015447340905666351,
                    -0.048387136310338974,
                    0.1236792728304863
                ],
                [
                    -0.22743569314479828,
                    0.09765058755874634,
                    0.07790444791316986
                ],
                [
                    0.2617407441139221,
                    0.22685480117797852,
                    -0.11071746796369553
                ]
            ],
            [
                [
                    0.08927993476390839,
                    -0.23531320691108704,
                    -0.1799299418926239
                ],
                [
                    0.028311466798186302,
                    -0.010643422603607178,
                    -0.142596036195755
                ],
                [
                    -0.005963807925581932,
                    -0.011308224871754646,
                    -0.22112883627414703
                ]
            ],
            [
                [
                    -0.03748630732297897,
                    0.07175199687480927,
                    0.007781123276799917
                ],
                [
                    -0.11973768472671509,
                    -0.046253304928541183,
                    0.015004322864115238
                ],
                [
                    0.1198609247803688,
                    0.20755884051322937,
                    -0.3807976543903351
                ]
            ],
            [
                [
                    -0.17706969380378723,
                    -0.2615869343280792,
                    -0.32964929938316345
                ],
                [
                    -0.31243231892585754,
                    -0.26779308915138245,
                    -0.11082205921411514
                ],
                [
                    -0.02290143445134163,
                    -0.38148126006126404,
                    -0.1586007922887802
                ]
            ],
            [
                [
                    -0.0471547469496727,
                    -0.11981337517499924,
                    -0.05728675425052643
                ],
                [
                    -0.06115270406007767,
                    0.04039651155471802,
                    -0.07515016943216324
                ],
                [
                    0.02556493692100048,
                    0.029116349294781685,
                    -0.009254219941794872
                ]
            ],
            [
                [
                    -0.2016146183013916,
                    0.016600102186203003,
                    0.10168461501598358
                ],
                [
                    -0.024617861956357956,
                    -0.037463027983903885,
                    0.059894267469644547
                ],
                [
                    0.13733962178230286,
                    0.1038120836019516,
                    0.040693141520023346
                ]
            ],
            [
                [
                    -0.08324072510004044,
                    -0.04703085869550705,
                    0.022070186212658882
                ],
                [
                    -0.12980647385120392,
                    0.06507118046283722,
                    0.14145079255104065
                ],
                [
                    0.14450621604919434,
                    0.1257484406232834,
                    -0.12078840285539627
                ]
            ],
            [
                [
                    -0.044113822281360626,
                    0.003466591238975525,
                    -0.0007241331040859222
                ],
                [
                    -0.019795160740613937,
                    -0.03186376392841339,
                    0.014665771275758743
                ],
                [
                    -0.04610166326165199,
                    -0.003095027059316635,
                    0.05638093873858452
                ]
            ],
            [
                [
                    -0.30073654651641846,
                    -0.03949796408414841,
                    -0.004444461781531572
                ],
                [
                    -0.014625671319663525,
                    0.011205038987100124,
                    0.12091394513845444
                ],
                [
                    0.1207439973950386,
                    0.03354724496603012,
                    0.0317901186645031
                ]
            ],
            [
                [
                    -0.07001298666000366,
                    -0.08456619083881378,
                    0.026403769850730896
                ],
                [
                    -0.2289021909236908,
                    -0.08308716863393784,
                    -0.18090374767780304
                ],
                [
                    -0.08634309470653534,
                    -0.12373495101928711,
                    0.018336789682507515
                ]
            ],
            [
                [
                    0.08507377654314041,
                    -0.06213511526584625,
                    -0.15851619839668274
                ],
                [
                    0.048237089067697525,
                    0.05868496373295784,
                    -0.17672352492809296
                ],
                [
                    -0.1362956017255783,
                    -0.07008809596300125,
                    -0.13543957471847534
                ]
            ],
            [
                [
                    -0.12492230534553528,
                    0.06174573302268982,
                    0.08769332617521286
                ],
                [
                    -0.22320443391799927,
                    0.0858297124505043,
                    0.055571313947439194
                ],
                [
                    0.11903123557567596,
                    -0.07073785364627838,
                    -0.27057644724845886
                ]
            ],
            [
                [
                    0.0043001011945307255,
                    -0.1506299376487732,
                    0.12824760377407074
                ],
                [
                    0.11787375062704086,
                    0.08388102799654007,
                    0.005494794808328152
                ],
                [
                    -0.03209768608212471,
                    0.12770095467567444,
                    0.06198769807815552
                ]
            ],
            [
                [
                    -0.0403238981962204,
                    -0.03896082192659378,
                    -0.004803132265806198
                ],
                [
                    0.011963490396738052,
                    -0.017155859619379044,
                    -0.022856440395116806
                ],
                [
                    -0.058314647525548935,
                    0.02185313031077385,
                    0.03476879373192787
                ]
            ],
            [
                [
                    -0.10298370569944382,
                    -0.30177074670791626,
                    0.004799617454409599
                ],
                [
                    0.12000848352909088,
                    -0.07198259234428406,
                    0.012144945561885834
                ],
                [
                    0.00866646971553564,
                    0.0920686423778534,
                    -0.15045686066150665
                ]
            ],
            [
                [
                    0.013779927976429462,
                    -0.15690304338932037,
                    -0.1936163604259491
                ],
                [
                    0.08785736560821533,
                    -0.08942221105098724,
                    0.13687433302402496
                ],
                [
                    -0.112091563642025,
                    0.052510179579257965,
                    0.13247588276863098
                ]
            ],
            [
                [
                    -0.06389909982681274,
                    -0.14916375279426575,
                    0.15927734971046448
                ],
                [
                    0.12051225453615189,
                    0.03173735365271568,
                    -0.022137515246868134
                ],
                [
                    -0.001826000981964171,
                    0.10193431377410889,
                    0.12941446900367737
                ]
            ],
            [
                [
                    -0.18841105699539185,
                    0.005431575234979391,
                    0.15706248581409454
                ],
                [
                    0.04647974669933319,
                    -0.01538757048547268,
                    0.12851285934448242
                ],
                [
                    0.12300363183021545,
                    0.1111392006278038,
                    0.09976212680339813
                ]
            ],
            [
                [
                    0.11095137149095535,
                    -0.05050646886229515,
                    0.061151210218667984
                ],
                [
                    -0.05325078219175339,
                    0.028028354048728943,
                    -0.06970328837633133
                ],
                [
                    -0.024821335449814796,
                    0.09244799613952637,
                    -0.013489407487213612
                ]
            ],
            [
                [
                    -0.11948324739933014,
                    -0.0369071289896965,
                    -0.1978238970041275
                ],
                [
                    -0.13557066023349762,
                    -0.24509859085083008,
                    -0.20465977489948273
                ],
                [
                    -0.018654007464647293,
                    -0.4156319200992584,
                    -0.13419120013713837
                ]
            ],
            [
                [
                    0.11701565235853195,
                    -0.24681901931762695,
                    -0.09776930510997772
                ],
                [
                    0.2048870474100113,
                    -0.03889947384595871,
                    -0.13481134176254272
                ],
                [
                    -0.029535800218582153,
                    0.057666290551424026,
                    -0.27068987488746643
                ]
            ],
            [
                [
                    -0.09117739647626877,
                    -0.046715229749679565,
                    -0.005011478904634714
                ],
                [
                    0.01970417983829975,
                    0.03438260406255722,
                    0.05413266643881798
                ],
                [
                    -0.02868511900305748,
                    -0.008792180567979813,
                    0.10884872078895569
                ]
            ],
            [
                [
                    0.12114453315734863,
                    -0.10858791321516037,
                    -0.055182892829179764
                ],
                [
                    0.10070183128118515,
                    0.0508248470723629,
                    -0.15140525996685028
                ],
                [
                    -0.0022263680584728718,
                    0.062250249087810516,
                    -0.17029015719890594
                ]
            ],
            [
                [
                    0.053186576813459396,
                    -0.08835498988628387,
                    -0.23067663609981537
                ],
                [
                    0.13495135307312012,
                    0.07737558335065842,
                    -0.15248465538024902
                ],
                [
                    -0.03923667222261429,
                    -0.036854326725006104,
                    -0.17972099781036377
                ]
            ],
            [
                [
                    -0.15865787863731384,
                    0.06026115268468857,
                    0.07012222707271576
                ],
                [
                    -0.07223671674728394,
                    0.052656982094049454,
                    0.024586616083979607
                ],
                [
                    0.045679666101932526,
                    -0.15226900577545166,
                    -0.27579694986343384
                ]
            ],
            [
                [
                    -0.03346269205212593,
                    0.025368308648467064,
                    0.07646432518959045
                ],
                [
                    -0.09244434535503387,
                    0.031632810831069946,
                    0.08296643197536469
                ],
                [
                    -0.02374492958188057,
                    0.059553951025009155,
                    -0.014502589590847492
                ]
            ],
            [
                [
                    -0.1864641159772873,
                    -0.09006896615028381,
                    0.08353890478610992
                ],
                [
                    0.0977352187037468,
                    0.03123934380710125,
                    0.08970671147108078
                ],
                [
                    0.024512099102139473,
                    0.06483697146177292,
                    0.03735952451825142
                ]
            ],
            [
                [
                    -0.030535928905010223,
                    -0.21749746799468994,
                    0.04579612612724304
                ],
                [
                    0.19997638463974,
                    -0.08253002166748047,
                    -0.08392377197742462
                ],
                [
                    0.05883825197815895,
                    0.033416442573070526,
                    0.10207770019769669
                ]
            ],
            [
                [
                    -0.038496557623147964,
                    -0.07499410212039948,
                    -0.1777268797159195
                ],
                [
                    0.142796128988266,
                    0.007924948818981647,
                    -0.08302498608827591
                ],
                [
                    -0.07063772529363632,
                    -0.07054584473371506,
                    -0.16268669068813324
                ]
            ],
            [
                [
                    -0.22010581195354462,
                    -0.23056155443191528,
                    -0.09036228060722351
                ],
                [
                    -0.11084801703691483,
                    -0.10484382510185242,
                    0.10957027226686478
                ],
                [
                    0.014359011314809322,
                    -0.07909776270389557,
                    0.08493740111589432
                ]
            ],
            [
                [
                    0.022295895963907242,
                    -0.10050398856401443,
                    0.012958824634552002
                ],
                [
                    -0.13349613547325134,
                    0.0385931022465229,
                    -0.006856667809188366
                ],
                [
                    -0.027117151767015457,
                    0.06727219372987747,
                    -0.12759344279766083
                ]
            ]
        ],
        [
            [
                [
                    -0.02282118797302246,
                    -0.04974091053009033,
                    0.003644348820671439
                ],
                [
                    -0.008171021938323975,
                    -0.09727232903242111,
