{
  "config": {
    "batch_size": 2,
    "seq_len": 3,
    "d_model": 8,
    "num_heads": 2,
    "hidden_dim": 32,
    "eps": 1e-05
  },
  "input": [
    [
      [
        0.24835707247257233,
        -0.06913214921951294,
        0.3238442838191986,
        0.7615149021148682,
        -0.11707668751478195,
        -0.11706847697496414,
        0.7896063923835754,
        0.3837173581123352
      ],
      [
        -0.23473718762397766,
        0.2712800204753876,
        -0.2317088395357132,
        -0.2328648716211319,
        0.1209811344742775,
        -0.9566401243209839,
        -0.8624589443206787,
        -0.28114375472068787
      ],
      [
        -0.5064155459403992,
        0.15712366998195648,
        -0.45401203632354736,
        -0.7061518430709839,
        0.7328243851661682,
        -0.1128881499171257,
        0.033764101564884186,
        -0.7123740911483765
      ]
    ],
    [
      [
        -0.2721913754940033,
        0.05546129494905472,
        -0.5754967927932739,
        0.1878490149974823,
        -0.3003193438053131,
        -0.1458468735218048,
        -0.30085331201553345,
        0.9261391162872314
      ],
      [
        -0.006748612504452467,
        -0.5288554430007935,
        0.41127246618270874,
        -0.6104218363761902,
        0.10443180054426193,
        -0.979835033416748,
        -0.664093017578125,
        0.09843061864376068
      ],
      [
        0.36923328042030334,
        0.0856841430068016,
        -0.05782414227724075,
        -0.15055184066295624,
        -0.7392609715461731,
        -0.3599221110343933,
        -0.23031938076019287,
        0.5285611152648926
      ]
    ]
  ],
  "weights": {
    "norm1_scale": [
      1.0,
      1.0,
      1.0,
      1.0,
      1.0,
      1.0,
      1.0,
      1.0
    ],
    "norm1_shift": [
      0.0,
      0.0,
      0.0,
      0.0,
      0.0,
      0.0,
      0.0,
      0.0
    ],
    "W_query": [
      [
        0.034361831843853,
        -0.17630402743816376,
        0.032408397644758224,
        -0.038508228957653046,
        -0.06769220530986786,
        0.061167627573013306,
        0.10309995710849762,
        0.0931280180811882
      ],
      [
        -0.08392175287008286,
        -0.030921239405870438,
        0.0331263430416584,
        0.097554512321949,
        -0.04791742190718651,
        -0.01856589876115322,
        -0.1106334924697876,
        -0.1196206584572792
      ],
      [
        0.0812525823712349,
        0.1356240063905716,
        -0.007201012223958969,
        0.10035329312086105,
        0.03616360202431679,
        -0.0645119771361351,
        0.036139559000730515,
        0.15380366146564484
      ],
      [
        -0.003582603996619582,
        0.1564643681049347,
        -0.2619745135307312,
        0.08219025284051895,
        0.008704707026481628,
        -0.02990073524415493,
        0.009176078252494335,
        -0.1987568885087967
      ],
      [
        -0.021967189386487007,
        0.03571125492453575,
        0.14778940379619598,
        -0.051827020943164825,
        -0.08084936439990997,
        -0.050175704061985016,
        0.09154020994901657,
        0.03287511318922043
      ],
      [
        -0.05297601968050003,
        0.05132674798369408,
        0.009707755409181118,
        0.0968644991517067,
        -0.07020530849695206,
        -0.03276621550321579,
        -0.039210814982652664,
        -0.14635150134563446
      ],
      [
        0.02961202897131443,
        0.026105526834726334,
        0.000511345686390996,
        -0.02345871366560459,
        -0.14153707027435303,
        -0.04206453263759613,
        -0.03427145257592201,
        -0.08022772520780563
      ],
      [
        -0.016128571704030037,
        0.04040508717298508,
        0.18861858546733856,
        0.017457781359553337,
        0.025755038484930992,
        -0.007444591727107763,
        -0.19187712669372559,
        -0.00265138759277761
      ]
    ],
    "W_key": [
      [
        0.006023020949214697,
        0.24632421135902405,
        -0.019236097112298012,
        0.03015473484992981,
        -0.0034711770713329315,
        -0.1168678030371666,
        0.1142822876572609,
        0.07519330829381943
      ],
      [
        0.07910319417715073,
        -0.0909387469291687,
        0.14027944207191467,
        -0.14018510282039642,
        0.05868570879101753,
        0.21904556453227997,
        -0.09905363619327545,
        -0.05662977322936058
      ],
      [
        0.009965136647224426,
        -0.05034756660461426,
        -0.1550663560628891,
        0.006856297608464956,
        -0.10623037070035934,
        0.04735924303531647,
        -0.09194242209196091,
        0.1549934446811676
      ],
      [
        -0.07832533121109009,
        -0.03220615163445473,
        0.08135171979665756,
        -0.12308643013238907,
        0.022745994850993156,
        0.1307142823934555,
        -0.16074833273887634,
        0.018463386222720146
      ],
      [
        0.025988280773162842,
        0.07818228751420975,
        -0.12369507551193237,
        -0.1320456713438034,
        0.052194155752658844,
        0.029698466882109642,
        0.025049284100532532,
        0.034644823521375656
      ],
      [
        -0.06800247728824615,
        0.023225370794534683,
        0.029307246208190918,
        -0.07143514603376389,
        0.1865774542093277,
        0.04738329350948334,
        -0.11913035064935684,
        0.06565536558628082
      ],
      [
        -0.09746816754341125,
        0.0787084624171257,
        0.11585956066846848,
        -0.08206823468208313,
        0.09633760899305344,
        0.04127809405326843,
        0.08220601826906204,
        0.1896793097257614
      ],
      [
        -0.024538813158869743,
        -0.07537361234426498,
        -0.08895144611597061,
        -0.08158102631568909,
        -0.007710170932114124,
        0.034115198999643326,
        0.027669081464409828,
        0.08271832764148712
      ]
    ],
    "W_value": [
      [
        0.0013001891784369946,
        0.14535342156887054,
        -0.026465684175491333,
        0.2720169126987457,
        0.06256673485040665,
        -0.08571575582027435,
        -0.10708924382925034,
        0.04824724420905113
      ],
      [
        -0.02234627865254879,
        0.07140005379915237,
        0.047323763370513916,
        -0.007282891310751438,
        -0.08467937260866165,
        -0.15148472785949707,
        -0.04465149715542793,
        0.08563988655805588
      ],
      [
        0.021409375593066216,
        -0.12457387894392014,
        0.01731809228658676,
        0.03853173926472664,
        -0.08838574588298798,
        0.015372510068118572,
        0.00582087179645896,
        -0.11429703235626221
      ],
      [
        0.03577873855829239,
        0.05607845261693001,
        0.10830511897802353,
        0.10538019984960556,
        -0.13776694238185883,
        -0.09378250688314438,
        0.05150352790951729,
        0.05137859657406807
      ],
      [
        0.051504768431186676,
        0.38527315855026245,
        0.057089049369096756,
        0.11355656385421753,
        0.09540017694234848,
        0.06513912975788116,
        -0.031526923179626465,
        0.07589692622423172
      ],
      [
        -0.07728252559900284,
        -0.02368186227977276,
        -0.048536356538534164,
        0.008187414146959782,
        0.23146586120128632,
        -0.18672652542591095,
        0.06862601637840271,
        -0.1612715870141983
      ],
      [
        -0.04719318822026253,
        0.10889506340026855,
        0.006428001914173365,
        -0.10777447372674942,
        -0.07153037190437317,
        0.06795977801084518,
        -0.07303666323423386,
        0.021645858883857727
      ],
      [
        0.004557184409350157,
        -0.06516003608703613,
        0.21439440548419952,
        0.06339190155267715,
        -0.20251427590847015,
        0.018645431846380234,
        -0.06617864221334457,
        0.0852433368563652
      ]
    ],
    "W_out": [
      [
        -0.07925207912921906,
        -0.011473643593490124,
        0.050498731434345245,
        0.08657552301883698,
        -0.12002964317798615,
        -0.03345012292265892,
        -0.04749453067779541,
        -0.06533292680978775
      ],
      [
        0.1765454262495041,
        0.040498171001672745,
        -0.12608839571475983,
        0.09178619831800461,
        0.2122156172990799,
        0.1032465249300003,
        -0.15193699300289154,
        -0.0484234057366848
      ],
      [
        0.12669111788272858,
        -0.07076694816350937,
        0.044381942600011826,
        0.07746341079473495,
        -0.09269305318593979,
        -0.005952535662800074,
        -0.3241267502307892,
        -0.10243876278400421
      ],
      [
        -0.025256816297769547,
        -0.12477832287549973,
        0.16324113309383392,
        -0.14301413297653198,
        -0.04400445148348808,
        0.01307405810803175,
        0.14412733912467957,
        -0.14358621835708618
      ],
      [
        0.11631637811660767,
        0.00102330616209656,
        -0.09815087169408798,
        0.04621034860610962,
        0.019905969500541687,
        -0.06002168729901314,
        0.0069802082143723965,
        -0.038531359285116196
      ],
      [
        0.011351734399795532,
        0.06621306389570236,
        0.15860168635845184,
        -0.12378155440092087,
        0.2133033275604248,
        -0.19520877301692963,
        -0.015178509056568146,
        0.05883172154426575
      ],
      [
        0.028099188581109047,
        -0.06226995214819908,
        -0.020812226459383965,
        -0.049300093203783035,
        -0.058936476707458496,
        0.0849602147936821,
        0.03570155054330826,
        -0.06929095834493637
      ],
      [
        0.08995998650789261,
        0.030729953199625015,
        0.08128621429204941,
        0.06296288222074509,
        -0.08289950340986252,
        -0.056018102914094925,
        0.07472936064004898,
        0.061037030071020126
      ]
    ],
    "norm2_scale": [
      1.0,
      1.0,
      1.0,
      1.0,
      1.0,
      1.0,
      1.0,
      1.0
    ],
    "norm2_shift": [
      0.0,
      0.0,
      0.0,
      0.0,
      0.0,
      0.0,
      0.0,
      0.0
    ],
    "ff_weight1": [
      [
        -0.002090159570798278,
        0.011732738465070724,
        0.12776648998260498,
        -0.05915714055299759,
        0.05470973998308182,
        -0.020219264551997185,
        -0.021768121048808098,
        0.10987768322229385
      ],
      [
        0.08254163712263107,
        0.08135096728801727,
        0.1305478811264038,
        0.0021003843285143375,
        0.06819529831409454,
        -0.031026676297187805,
        0.03241663798689842,
        -0.01301430631428957
      ],
      [
        0.009699597023427486,
        0.05951570346951485,
        -0.08182206749916077,
        0.20923872292041779,
        -0.10060173273086548,
        -0.12141885608434677,
        0.11581108719110489,
        0.07916627079248428
      ],
      [
        0.06241198256611824,
        0.06283455342054367,
        -0.001224677311256528,
        -0.08972543478012085,
        0.0075804563239216805,
        -0.06771617382764816,
        0.09751196950674057,
        -0.014705738984048367
      ],
      [
        -0.08254972100257874,
        -0.032138582319021225,
        0.04129314422607422,
        -0.05637245997786522,
        -0.08222203701734543,
        0.02436872199177742,
        0.02449665777385235,
        -0.05069431662559509
      ],
      [
        -0.04710383340716362,
        0.023204995319247246,
        -0.14480844140052795,
        -0.14074638485908508,
        -0.0718444213271141,
        -0.021344715729355812,
        0.031090756878256798,
        0.14753562211990356
      ],
      [
        0.08576596528291702,
        -0.01599385403096676,
        -0.001901620882563293,
        -0.10025294125080109,
        -0.0018513136310502887,
        -0.028865864500403404,
        0.032271858304739,
        -0.08272309601306915
      ],
      [
        0.051934655755758286,
        0.15327389538288116,
        -0.010876014828681946,
        0.040171172469854355,
        0.06901440024375916,
        -0.04012204706668854,
        0.02240924909710884,
        0.0012592400889843702
      ],
      [
        0.009767609648406506,
        -0.07730098068714142,
        0.0024510174989700317,
        0.049799829721450806,
        0.14511436223983765,
        0.09592708200216293,
        0.2153182476758957,
        -0.076734758913517
      ],
      [
        0.0872320681810379,
        0.018334200605750084,
        0.21898029744625092,
        -0.08082982897758484,
        -0.08397218585014343,
        -0.05993926525115967,
        -0.21238957345485687,
        -0.05257550626993179
      ],
      [
        -0.07591327279806137,
        0.01503937877714634,
        0.03417560085654259,
        0.18761709332466125,
        0.095042385160923,
        -0.05769036337733269,
        -0.08984147012233734,
        0.0491919182240963
      ],
      [
        -0.13202331960201263,
        0.18314588069915771,
        0.11794401705265045,
        -0.046917568892240524,
        -0.17131344974040985,
        0.13538724184036255,
        -0.01145398523658514,
        0.12378163635730743
      ],
      [
        -0.15944276750087738,
        -0.059937503188848495,
        0.0005243699415586889,
        0.004698059521615505,
        -0.04500654712319374,
        0.06228499487042427,
        -0.10676204413175583,
        -0.014237947762012482
      ],
      [
        0.012029563076794147,
        0.051443882286548615,
        0.07116149365901947,
        -0.11246421188116074,
        -0.15341141819953918,
        0.1277676820755005,
        0.033231403678655624,
        -0.07484865188598633
      ],
      [
        0.15511520206928253,
        0.011567464098334312,
        0.11792971938848495,
        0.006751847919076681,
        0.2060747891664505,
        0.17553408443927765,
        -0.024896414950489998,
        0.09715709835290909
      ],
      [
        0.06453759968280792,
        0.13686315715312958,
        -0.09649234265089035,
        0.06860514730215073,
        0.10584244877099991,
        -0.17587395012378693,
        -0.1183258518576622,
        -0.20392322540283203
      ],
      [
        -0.026940682902932167,
        0.07175422459840775,
        0.15023569762706757,
        0.007409478072077036,
        0.16286155581474304,
        -0.1380101442337036,
        -0.17033825814723969,
        -0.005554770119488239
      ],
      [
        0.03840654715895653,
        -0.0032694749534130096,
        -0.2067442238330841,
        -0.008912003599107265,
        -0.13044695556163788,
        0.06696725636720657,
        0.03665982559323311,
        -0.09398797899484634
      ],
      [
        -0.05138669162988663,
        -0.10592135041952133,
        -0.0062679098919034,
        0.09551423043012619,
        -0.09857260435819626,
        0.05040464922785759,
        -0.05302576348185539,
        -0.07928728312253952
      ],
      [
        -0.010703036561608315,
        -0.10352423042058945,
        -0.055364932864904404,
        -0.1197877898812294,
        0.19647251069545746,
        0.0035263553727418184,
        -0.06997255235910416,
        0.021397991105914116
      ],
      [
        -0.01123280543833971,
        -0.022096959874033928,
        0.06141666695475578,
        0.07575076818466187,
        -0.05305011197924614,
        -0.0575818233191967,
        -0.027505168691277504,
        -0.23019210994243622
      ],
      [
        -0.15151910483837128,
        0.13668742775917053,
        0.1644967645406723,
        -0.02490360476076603,
        0.0576556995511055,
        0.031125014647841454,
        0.30788809061050415,
        0.11195749044418335
      ],
      [
        -0.012791759334504604,
        -0.09555404633283615,
        -0.16064463555812836,
        0.02034636400640011,
        -0.07563507556915283,
        -0.14222536981105804,
        -0.0646572932600975,
        -0.1081547960639
      ],
      [
        0.16871416568756104,
        0.08816397935152054,
        -0.0007972641033120453,
        0.14799441397190094,
        0.00773683050647378,
        -0.08612842112779617,
        0.15231241285800934,
        0.053891003131866455
      ],
      [
        -0.10372461378574371,
        -0.019033867865800858,
        -0.08756183087825775,
        -0.1382799744606018,
        0.09261775761842728,
        0.1909416764974594,
        -0.13985675573349,
        0.05629692226648331
      ],
      [
        -0.06506425887346268,
        -0.04871254041790962,
        -0.05923939496278763,
        -0.08639907836914062,
        0.004852162674069405,
        -0.0830950140953064,
        0.027045682072639465,
        -0.005023811012506485
      ],
      [
        -0.02389480546116829,
        -0.0907563716173172,
        -0.05767713114619255,
        0.07553912699222565,
        0.05009172111749649,
        -0.09775552153587341,
        0.009933230467140675,
        0.07513871043920517
      ],
      [
        -0.16694052517414093,
        0.05433601886034012,
        -0.0662623792886734,
        0.057059865444898605,
        -0.0763259157538414,
        -0.1804882138967514,
        -0.16275425255298615,
        0.004808494821190834
      ],
      [
        0.02597225084900856,
        -0.09043166041374207,
        0.0638592466711998,
        -0.1661520004272461,
        -0.0066079795360565186,
        -0.12110161781311035,
        -0.0651836097240448,
        0.004739867057651281
      ],
      [
        -0.08604133874177933,
        -0.03845555707812309,
        0.1006292849779129,
        -0.05768918991088867,
        0.08356921374797821,
        -0.11297068744897842,
        0.052980419248342514,
        0.14415685832500458
      ],
      [
        -0.24716444313526154,
        -0.07968952506780624,
        0.05770721659064293,
        -0.020304538309574127,
        0.03711458668112755,
        -0.06039851903915405,
        0.008658979088068008,
        -0.015567722730338573
      ],
      [
        0.11677820980548859,
        0.025442084297537804,
        0.03376026824116707,
        -0.041187699884176254,
        -0.04876062273979187,
        -0.04325581714510918,
        0.039445217698812485,
        -0.04209844768047333
      ]
    ],
    "ff_weight2": [
      [
        0.028977487236261368,
        0.20754007995128632,
        0.08711247146129608,
        -0.032602351158857346,
        0.12012139707803726,
        -0.040807537734508514,
        -0.20381246507167816,
        -0.10080863535404205,
        -0.18707919120788574,
        -0.035151347517967224,
        0.0018418378895148635,
        0.1676437258720398,
        0.03269273787736893,
        -0.021910054609179497,
        0.08294056355953217,
        -0.22111354768276215,
        0.02356145530939102,
        0.07708652317523956,
        -0.1478586196899414,
        0.11437540501356125,
        0.03384964168071747,
        -0.041528791189193726,
        0.0632781907916069,
        0.22706928849220276,
        0.018186626955866814,
        0.024822060018777847,
        -0.045936089009046555,
        -0.0849844440817833,
        0.08303358405828476,
        -0.08560838550329208,
        0.0071566239930689335,
        -0.04776574298739433
      ],
      [
        0.047897983342409134,
        0.033366210758686066,
        0.10375399887561798,
        -0.05100163817405701,
        -0.02698749303817749,
        -0.09787636995315552,
        -0.04442932829260826,
        0.03773004934191704,
        0.0756988674402237,
        -0.09221653640270233,
        0.08696059137582779,
        0.13556379079818726,
        0.04134349152445793,
        0.18767957389354706,
        -0.07737892121076584,
        -0.1244654655456543,
        -0.17787203192710876,
        0.1496044248342514,
        0.06543656438589096,
        -0.005558467004448175,
        0.027996862307190895,
        -0.11254890263080597,
        0.24457518756389618,
        0.012922118417918682,
        0.010939479805529118,
        0.07257666438817978,
        0.048100925981998444,
        0.022388404235243797,
        -0.07904744893312454,
        0.047146838158369064,
        0.18820245563983917,
        0.13454200327396393
      ],
      [
        0.15931867063045502,
        -0.05112157016992569,
        -0.09896048158407211,
        -0.012578691355884075,
        0.005572491325438023,
        0.10941915959119797,
        -0.16924646496772766,
        0.1529550403356552,
        -0.01580079086124897,
        -0.04268810898065567,
        -0.10121043771505356,
        -0.1654856652021408,
        0.0823170617222786,
        0.007331796921789646,
        -0.1289960891008377,
        -0.1295078843832016,
        -0.03357847034931183,
        0.16690215468406677,
        -0.025959134101867676,
        -0.1503143012523651,
        -0.02457430772483349,
        -0.027272356674075127,
        -0.2696886658668518,
        -0.005429486744105816,
        -0.0230934526771307,
        0.06962063908576965,
        0.1848956197500229,
        0.11265649646520615,
        -0.02688886784017086,
        -0.11065258830785751,
        0.25733599066734314,
        0.005921843461692333
      ],
      [
        0.0013929292326793075,
        -0.0024125089403241873,
        0.01980847679078579,
        -0.014436041004955769,
        -0.05736619979143143,
        -0.05468589812517166,
        -0.0032753271516412497,
        -0.05434247851371765,
        -0.07128458470106125,
        0.010643023066222668,
        -0.02549772337079048,
        0.150399312376976,
        -0.2650969922542572,
        0.10915068536996841,
        0.12460851669311523,
        -0.20733903348445892,
        -0.03426876291632652,
        -0.03714408725500107,
        -0.1407511681318283,
        -0.07778166979551315,
        -0.1110575795173645,
        0.17522704601287842,
        0.09356784075498581,
        0.12715551257133484,
        0.07216721028089523,
        -0.11290518194437027,
        -0.052452027797698975,
        0.04893745481967926,
        -0.12221278250217438,
        0.07129984349012375,
        -0.024032538756728172,
        -0.03748207911849022
      ],
      [
        0.07109599560499191,
        0.0444263331592083,
        -0.036096617579460144,
        0.11593297868967056,
        -0.108106330037117,
        0.06159356236457825,
        0.059310127049684525,
        -0.030954644083976746,
        0.032613303512334824,
        -0.12511135637760162,
        0.09240270406007767,
        -0.01849021390080452,
        -0.05227230116724968,
        0.10490091890096664,
        -0.07043436914682388,
        -0.1408461332321167,
        -0.1556629240512848,
        0.060600996017456055,
        -0.12804293632507324,
        0.17547942698001862,
        -0.20819294452667236,
        0.16964563727378845,
        0.021101748570799828,
        -0.009671310894191265,
        -0.054491907358169556,
        0.039913613349199295,
        -0.0037634705659002066,
        0.11033018678426743,
        0.011422764509916306,
        0.01503017544746399,
        -0.036361221224069595,
        -0.00569456210359931
      ],
      [
        0.030780179426074028,
        -0.1710168421268463,
        -0.13481853902339935,
        0.07432641088962555,
        0.017086543142795563,
        -0.018398335203528404,
        0.0018433931982144713,
        0.03475817292928696,
        -0.053975969552993774,
        -0.077830471098423,
        0.019584527239203453,
        -0.09783727675676346,
        0.04082527384161949,
        -0.17025835812091827,
        0.10291556268930435,
        0.047259747982025146,
        0.025602972134947777,
        0.09826909750699997,
        0.16654744744300842,
        0.10143700987100601,
        -0.18408742547035217,
        -0.12795770168304443,
        -0.06248185783624649,
        0.00260910508222878,
        0.05176590010523796,
        -0.07257438451051712,
        0.018676675856113434,
        -0.07553829997777939,
        -0.06115178018808365,
        -0.14066611230373383,
        -0.09232332557439804,
        -0.13516846299171448
      ],
      [
        -0.09758732467889786,
        0.10536418110132217,
        -0.09493988752365112,
        0.26323822140693665,
        0.04933179169893265,
        0.018483612686395645,
        -0.0858357772231102,
        0.07003098726272583,
        -0.05756378173828125,
        0.012200981378555298,
        0.25600847601890564,
        -0.009605989791452885,
        0.11492732912302017,
        -0.07031764835119247,
        -0.003498848993331194,
        0.17708006501197815,
        -0.06269671022891998,
        0.1812448501586914,
        0.07077519595623016,
        -0.05624667927622795,
        0.06324077397584915,
        0.09725544601678848,
        0.06218099594116211,
        -0.15702247619628906,
        -0.07271371781826019,
        -0.02475186251103878,
        -0.007443343289196491,
        0.06206721067428589,
        0.017770100384950638,
        -0.13353443145751953,
        0.03801978752017021,
        0.06105857715010643
      ],
      [
        0.05597904324531555,
        0.10807807743549347,
        0.08339221775531769,
        0.04591801017522812,
        -0.007016570772975683,
        -0.16609609127044678,
        0.04296182096004486,
        0.020768769085407257,
        0.02715788595378399,
        -0.127674862742424,
        -0.10810565948486328,
        0.10531528294086456,
        -0.003955515567213297,
        0.06815006583929062,
        0.0028318376280367374,
        0.0029756140429526567,
        0.09382838010787964,
        -0.05160447582602501,
        0.009612077847123146,
        -0.046227529644966125,
        -0.04344962164759636,
        -0.0309172123670578,
        0.022213377058506012,
        -0.04787486419081688,
        0.12557561695575714,
        -0.08946073055267334,
        -0.018687164410948753,
        -0.043973106890916824,
        0.14469778537750244,
        0.01965547911822796,
        0.10318445414304733,
        -0.14855603873729706
      ]
    ]
  },
  "intermediates": {
    "norm1_out": [
      [
        [
          -0.0789976641535759,
          -1.0040392875671387,
          0.14094306528568268,
          1.4161471128463745,
          -1.1437312364578247,
          -1.143707275390625,
          1.4979950189590454,
          0.3153901994228363
        ],
        [
          0.16641514003276825,
          1.4389456510543823,
          0.1740308254957199,
          0.17112363874912262,
          1.0609744787216187,
          -1.649024248123169,
          -1.4121776819229126,
          0.049712054431438446
        ],
        [
          -0.6661376357078552,
          0.7578616142272949,
          -0.5536762475967407,
          -1.0947849750518799,
          1.9933536052703857,
          0.1783982813358307,
          0.49312376976013184,
          -1.1081384420394897
        ]
      ],
      [
        [
          -0.5091009140014648,
          0.25246214866638184,
          -1.214073657989502,
          0.5601708889007568,
          -0.5744787454605103,
          -0.21543839573860168,
          -0.5757198333740234,
          2.2761783599853516
        ],
        [
          0.58375084400177,
          -0.565371572971344,
          1.5037875175476074,
          -0.7448937892913818,
          0.8284515738487244,
          -1.5579477548599243,
          -0.8630204796791077,
          0.8152434229850769
        ],
        [
          1.1617951393127441,
          0.41059553623199463,
          0.030402669683098793,
          -0.21525847911834717,
          -1.7749106884002686,
          -0.7699378132820129,
          -0.4265846014022827,
          1.5838983058929443
        ]
      ]
    ],
    "attn_out": [
      [
        [
          0.08712361261697676,
          -0.009287827167771545,
          0.17189069120540165,
          -0.1285097730651586,
          -0.013659263277334811,
          -0.08215616561524802,
          -0.041055746396654685,
          0.0904371130842926
        ],
        [
          -0.025907589053686814,
          0.16505348960597266,
          0.08080263922872603,
          -0.11549244695596024,
          0.04269415055867201,
          -0.031198920128389988,
          -0.015410618711702729,
          0.026683832366454028
        ],
        [
          -0.03030427067787861,
          0.13479671770099344,
          0.05073702409500032,
          -0.015107030903943316,
          0.017933660504821,
          -0.06245759344046459,
          0.03653662315850523,
          -0.039817973208475355
        ]
      ],
      [
        [
          -0.0566919141594828,
          0.09763846541733429,
          -0.03263967807111516,
          -0.11438687234001874,
          0.09894172071459373,
          0.09053048528118268,
          -0.054958695083539066,
          0.04868237803382197
        ],
        [
          -0.03174350845510125,
          0.06571605326158463,
          -0.02016455053994139,
          -0.11250499309348462,
          0.048877631969179346,
          0.020712011657192317,
          -0.037766382913807045,
          0.03247758832405004
        ],
        [
          -0.023705182008792153,
          0.04137801967724923,
          -0.04391412839374631,
          -0.13903230225098628,
          0.052959348578023036,
          0.059037012756044005,
          -0.06939619356958848,
          0.05871018590606529
        ]
      ]
    ],
    "residual1": [
      [
        [
          0.3354806850895491,
          -0.07841997638728448,
          0.4957349750246003,
          0.6330051290497096,
          -0.13073595079211675,
          -0.19922464259021216,
          0.7485506459869208,
          0.4741544711966278
        ],
        [
          -0.2606447766776645,
          0.43633351008136023,
          -0.15090620030698715,
          -0.3483573185770921,
          0.1636752850329495,
          -0.9878390444493739,
          -0.8778695630323814,
          -0.2544599223542338
        ],
        [
          -0.5367198166182778,
          0.2919203876829499,
          -0.40327501222854706,
          -0.7212588739749272,
          0.7507580456709892,
          -0.1753457433575903,
          0.07030072472338941,
          -0.7521920643568518
        ]
      ],
      [
        [
          -0.3288832896534861,
          0.153099760366389,
          -0.608136470864389,
          0.07346214265746356,
          -0.20137762309071938,
          -0.05531638824062213,
          -0.3558120070990725,
          0.9748214943210534
        ],
        [
          -0.03849212095955372,
          -0.4631393897392088,
          0.39110791564276737,
          -0.7229268294696748,
          0.15330943251344128,
          -0.9591230217595558,
          -0.7018594004919321,
          0.13090820696781072
        ],
        [
          0.3455280984115112,
          0.12706216268405085,
          -0.10173827067098706,
          -0.2895841429139425,
          -0.68630162296815,
          -0.3008850982783493,
          -0.29971557432978135,
          0.5872713011709578
        ]
      ]
    ],
    "norm2_out": [
      [
        [
          0.14638835602393424,
          -1.0495695189891645,
          0.6094399959237272,
          1.0060794241498627,
          -1.2007355049414359,
          -1.3986322418372328,
          1.3399459379419687,
          0.54708355172834
        ],
        [
          0.05463780549199851,
          1.617673046186,
          0.3007362355141986,
          -0.14206530082306973,
          1.0062129440392475,
          -1.5761594359015971,
          -1.329543180960743,
          0.06850788645396565
        ],
        [
          -0.7136301927990522,
          0.965160333013644,
          -0.44327657953535093,
          -1.0874986335585703,
          1.894746309071824,
          0.01849862175198296,
          0.5161681303916913,
          -1.1501679883361693
        ]
      ],
      [
        [
          -0.6356674683363391,
          0.43797652095706335,
          -1.2577194253206854,
          0.26057930839677135,
          -0.35164152074270855,
          -0.026282015135379852,
          -0.6956526807284389,
          2.2684072809097167
        ],
        [
          0.5107187493507214,
          -0.4013468675896394,
          1.4334220168115337,
          -0.9593233551626031,
          0.922673835512453,
          -1.4666301052069954,
          -0.9140743237414155,
          0.8745600500259452
        ],
        [
          1.1017389312420833,
          0.5324885673805695,
          -0.06369009775242253,
          -0.5531546486817002,
          -1.586869900989084,
          -0.5826012208978677,
          -0.5795538262042731,
          1.731642195902695
        ]
      ]
    ],
    "ff_out": [
      [
        [
          0.057202194706022794,
          0.1136930640840428,
          0.004655335620200753,
          0.06447643798111329,
          0.024645612568962322,
          -0.1539076207772283,
          -0.05540942731151397,
          -0.0138488430639588
        ],
        [
          -0.08891744307979846,
          -0.2084800221087817,
          -0.08699112149104898,
          -0.1133042156913329,
          -0.13222513275582887,
          -0.027309901977418987,
          0.11991402772222971,
          0.0206382668463502
        ],
        [
          -0.11041537370568841,
          -0.0985268014389699,
          -0.04247535542365846,
          -0.0632489872888914,
          0.04627205722709059,
          0.020681401335605372,
          0.05344375916493199,
          0.05220194500562084
        ]
      ],
      [
        [
          0.06196360003487259,
          0.049075613387780194,
          0.08085988989961487,
          0.0668385149624028,
          0.08879781082388599,
          0.010519157643047675,
          -0.03056197993027489,
          -0.027904499585340373
        ],
        [
          0.03990878151913103,
          -0.20515607584906273,
          -0.07056031302087809,
          -0.033524455874272586,
          -0.045199571440919815,
          -0.058160943541652105,
          -0.07378287498545696,
          0.05257061417733104
        ],
        [
          0.09256411563380995,
          0.004268016948034956,
          -0.00046490546648136205,
          0.10112634410099423,
          0.038252551009405,
          -0.07833436696512805,
          -0.05871252509974992,
          -0.038696740963142864
        ]
      ]
    ]
  },
  "output": [
    [
      [
        0.39268287979557187,
        0.03527308769675831,
        0.500390310644801,
        0.6974815670308229,
        -0.10609033822315443,
        -0.35313226336744047,
        0.6931412186754068,
        0.460305628132669
      ],
      [
        -0.34956221975746293,
        0.22785348797257854,
        -0.23789732179803613,
        -0.46166153426842504,
        0.03145015227712064,
        -1.0151489464267929,
        -0.7579555353101517,
        -0.2338216555078836
      ],
      [
        -0.6471351903239663,
        0.19339358624398,
        -0.44575036765220555,
        -0.7845078612638186,
        0.7970301028980799,
        -0.15466434202198492,
        0.1237444838883214,
        -0.699990119351231
      ]
    ],
    [
      [
        -0.2669196896186135,
        0.2021753737541692,
        -0.5272765809647741,
        0.14030065761986638,
        -0.11257981226683339,
        -0.044797230597574456,
        -0.3863739870293474,
        0.946916994735713
      ],
      [
        0.0014166605595773082,
        -0.6682954655882716,
        0.3205476026218893,
        -0.7564512853439473,
        0.10810986107252146,
        -1.0172839653012078,
        -0.7756422754773891,
        0.18347882114514175
      ],
      [
        0.43809221404532117,
        0.13133017963208582,
        -0.10220317613746843,
        -0.18845779881294827,
        -0.6480490719587451,
        -0.3792194652434774,
        -0.35842809942953124,
        0.5485745602078149
      ]
    ]
  ]
}